{
  "binning": {
    "czbins": [
      -1.0,
      -0.875,
      -0.75,
      -0.625,
      -0.5,
      -0.375,
      -0.25,
      -0.125,
      0.0,
      0.125,
      0.25,
      0.375,
      0.5,
      0.625,
      0.75,
      0.875,
      1.0
    ],
    "ebins": [
      3.16227766,
      4.21696503,
      5.62341325,
      7.49894209,
      10.0,
      13.33521432,
      17.7827941,
      23.71373706,
      31.6227766,
      42.16965034,
      56.23413252,
      74.98942093,
      100.0,
      133.35214322,
      177.827941
    ],
    "anlys_ebins": [
      5.62341325,
      7.49894209,
      10.0,
      13.33521432,
      17.7827941,
      23.71373706,
      31.6227766,
      42.16965034,
      56.23413252,
      74.98942093,
      100.0
    ],
    "oversample_cz": 1,
    "oversample_e": 1,
    "actual_oversample_cz": 10,
    "actual_oversample_e": 10
  },
  "params": {
    "PID_offset": {
      "fixed": true,
      "prior": {
        "fiducial": 0.0,
        "kind": "gaussian",
        "sigma": 0.02
      },
      "range": [
        -0.1,
        0.1
      ],
      "scale": 1.0,
      "value": 0.0
    },
    "PID_scale": {
      "fixed": true,
      "prior": {
        "fiducial": 1.0,
        "kind": "gaussian",
        "sigma": 0.02
      },
      "range": [
        0.9,
        1.1
      ],
      "scale": 1.0,
      "value": 1.0
    },
    "YeI": {
      "fixed": true,
      "prior": {
        "kind": "uniform"
      },
      "range": [
        0.46,
        0.47
      ],
      "scale": 1.0,
      "value": 0.4656
    },
    "YeM": {
      "fixed": true,
      "prior": {
        "kind": "uniform"
      },
      "range": [
        0.496,
        0.495
      ],
      "scale": 1.0,
      "value": 0.4957
    },
    "YeO": {
      "fixed": true,
      "prior": {
        "kind": "uniform"
      },
      "range": [
        0.46,
        0.47
      ],
      "scale": 1.0,
      "value": 0.4656
    },
    "aeff_coszen_par": {
      "fixed": true,
      "value": "aeff/DC12/"
    },
    "aeff_egy_par": {
      "fixed": true,
      "value": {
        "NC": "aeff/DC12/nocuts/a_eff_nuall_nc.dat",
        "NC_bar": "aeff/DC12/nocuts/a_eff_nuallbar_nc.dat",
        "nue": "aeff/DC12/nocuts/a_eff_nue.dat",
        "nue_bar": "aeff/DC12/nocuts/a_eff_nuebar.dat",
        "numu": "aeff/DC12/nocuts/a_eff_numu.dat",
        "numu_bar": "aeff/DC12/nocuts/a_eff_numubar.dat",
        "nutau": "aeff/DC12/nocuts/a_eff_nutau.dat",
        "nutau_bar": "aeff/DC12/nocuts/a_eff_nutaubar.dat"
      }
    },
    "aeff_mode": {
      "fixed": true,
      "value": "MC"
    },
    "aeff_scale": {
      "fixed": false,
      "prior": {
        "kind": "uniform"
      },
      "range": [
        0.7,
        1.3
      ],
      "scale": 1.0,
      "value": 1.0
    },
    "aeff_weight_file": {
      "fixed": true,
      "value": "aeff/events__deepcore__IC86__runs_12585-16585:20000__proc_v5digit__unjoined.hdf5"
    },
    "atm_delta_index": {
      "fixed": false,
      "prior": {
        "fiducial": 0.0,
        "kind": "gaussian",
        "sigma": 0.05
      },
      "range": [
        -0.2,
        0.2
      ],
      "scale": 1.0,
      "value": 0.0
    },
    "atmos_mu_scale": {
      "fixed": false,
      "prior": {
        "kind": "uniform"
      },
      "range": [
        0.0,
        1.0
      ],
      "scale": 1.0,
      "value": 0.37
    },
    "channel": {
      "fixed": true,
      "value": "all"
    },
    "cz_reco_precision_up": {
      "fixed": false,
      "prior": {
        "fiducial": 1.0,
        "kind": "gaussian",
        "sigma": 0.033
      },
      "range": [
        0.7,
        2.0
      ],
      "scale": 1,
      "value": 1.0
    },
    "cz_reco_precision_down": {
      "fixed": false,
      "prior": {
        "fiducial": 1.0,
        "kind": "gaussian",
        "sigma": 0.033
      },
      "range": [
        0.7,
        2.0
      ],
      "scale": 1,
      "value": 1.0
    },
    "deltacp": {
      "fixed": true,
      "prior": {
        "kind": "uniform"
      },
      "range": [
        0.0,
        360.0
      ],
      "scale": 1.0,
      "value": 0.0
    },
    "deltam21": {
      "fixed": true,
      "prior": {
        "fiducial": 7.5e-05,
        "kind": "gaussian",
        "sigma": 2e-06
      },
      "range": [
        7e-05,
        8e-05
      ],
      "scale": 10000.0,
      "value": 7.5e-05
    },
    "deltam31_ih": {
      "fixed": false,
      "prior": {
        "fiducial": -0.00237,
        "kind": "gaussian",
        "sigma": 5e-05
      },
      "range": [
        -0.0025,
        -0.0022
      ],
      "scale": 100.0,
      "value": -0.00237
    },
    "deltam31_nh": {
      "fixed": false,
      "prior": {
        "fiducial": 0.00246,
        "kind": "gaussian",
        "sigma": 5e-05
      },
      "range": [
        0.0023,
        0.0026
      ],
      "scale": 100.0,
      "value": 0.00246
    },
    "detector_depth": {
      "fixed": true,
      "value": 2.0
    },
    "dom_eff": {
      "fixed": false,
      "prior": {
        "fiducial": 1.0,
        "kind": "gaussian",
        "sigma": 0.1
      },
      "range": [
        0.85,
        1.15
      ],
      "scale": 1.0,
      "value": 1.0
    },
    "e_reco_precision_up": {
      "fixed": false,
      "prior": {
        "fiducial": 1.0,
        "kind": "gaussian",
        "sigma": 0.03
      },
      "range": [
        0.7,
        2.0
      ],
      "scale": 1,
      "value": 1.0
    },
    "e_reco_precision_down": {
      "fixed": false,
      "prior": {
        "fiducial": 1.0,
        "kind": "gaussian",
        "sigma": 0.03
      },
      "range": [
        0.7,
        2.0
      ],
      "scale": 1,
      "value": 1.0
    },
    "earth_model": {
      "fixed": true,
      "value": "oscillations/PREM_12layer.dat"
    },
    "energy_scale": {
      "fixed": true,
      "prior": {
        "fiducial": 1.0,
        "kind": "gaussian",
        "sigma": 0.1
      },
      "range": [
        0.7,
        1.3
      ],
      "scale": 1.0,
      "value": 1.0
    },
    "flux_mode": {
      "fixed": true,
      "value": "integral-preserving"
    },
    "flux_file": {
      "fixed": true,
      "value": "flux/spl-nu-20-01-000-solmin-aa-2014.d"
    },
    "NuFluxIP_file": {
      "fixed": true,
      "value": "flux/IPhonda2014_fluxes2d_aa_for_PISA_e140_cz160_avg_100epoints_100czpoints.json"
    },
    "ocelot_file": {
        "fixed": true,
        "value": "oscillations/osc_probabilities_e140_cz160_good.json"
    },
    "hole_ice": {
      "fixed": false,
      "prior": {
        "fiducial": 0.02,
        "kind": "gaussian",
        "sigma": 0.01
      },
      "range": [
        0.0,
        0.05
      ],
      "scale": 10.0,
      "value": 0.02
    },
    "icc_bg_file": {
      "fixed": true,
      "value": "background/Matt_L5b_icc_data_IC86_2_3_4.hdf5"
    },
    "livetime": {
      "fixed": true,
      "value": 4.0
    },
    "nu_nubar_ratio": {
      "fixed": false,
      "prior": {
        "fiducial": 1.0,
        "kind": "gaussian",
        "sigma": 0.1
      },
      "range": [
        0.7,
        1.3
      ],
      "scale": 1.0,
      "value": 1.0
    },
    "nue_numu_ratio": {
      "fixed": false,
      "prior": {
        "fiducial": 1.0,
        "kind": "gaussian",
        "sigma": 0.2
      },
      "range": [
        0.7,
        1.3
      ],
      "scale": 1.0,
      "value": 1.0
    },
    "nutau_norm": {
      "fixed": true,
      "prior": {
        "kind": "uniform"
      },
      "range": [
        0.0,
        2.5
      ],
      "scale": 0.1,
      "value": 1.0
    },
    "osc_code": {
      "fixed": true,
      "value": "prob3"
    },
    "pid_kernelfile": {
      "fixed": true,
      "value": null
    },
    "pid_events": {
      "fixed": true,
      "value": "aeff/events__deepcore__IC86__runs_12585-16585:20000__proc_v5digit__joined_G_nue_cc+nuebar_cc_G_numu_cc+numubar_cc_G_nutau_cc+nutaubar_cc_G_nuall_nc+nuallbar_nc.hdf5"
    },
    "pid_ver": {
      "fixed": true,
      "value": "1"
    },
    "pid_remove_true_downgoing": {
      "fixed": true,
      "value": false 
    },
    "pid_mode": {
      "fixed": true,
      "value": "mc"
    },
    "pid_paramfile_up": {
      "fixed": true,
      "value": "pid/1X60_pid.json"
    },
    "pid_paramfile_down": {
      "fixed": true,
      "value": "pid/1X60_pid_down.json"
    },
    "prop_height": {
      "fixed": true,
      "value": 20.0
    },
    "ratio_up_down": {
      "fixed": true,
      "value": false
    },
    "reco_kernel_file": {
      "fixed": true,
      "value": null
    },
    "reco_mc_wt_file": {
      "fixed": true,
      "value": "aeff/events__deepcore__IC86__runs_12585-16585:20000__proc_v5digit__joined_G_nue_cc+nuebar_cc_G_numu_cc+numubar_cc_G_nutau_cc+nutaubar_cc_G_nuall_nc+nuallbar_nc.hdf5"
    },
    "reco_mode": {
      "fixed": true,
      "value": "MC"
    },
    "reco_param_file": {
      "fixed": true,
      "value": "reco/V36.json"
    },
    "reco_vbwkde_evts_file": {
      "fixed": true,
      "value": "aeff/events__deepcore__IC86__runs_12585-16585:20000__proc_v5digit__joined_G_nue_cc+nuebar_cc_G_numu_cc+numubar_cc_G_nutau_cc+nutaubar_cc_G_nuall_nc+nuallbar_nc.hdf5"
    },
    "domeff_slope_file": {
      "fixed": true,
      "value": "domeff_holeice/5digit_DomEff_fits_10_by_16.json"
    },
    "holeice_slope_file": {
      "fixed": true,
      "value": "domeff_holeice/5digit_HoleIce_fits_10_by_16.json"
    },
    "reco_prcs_coeff_file": {
      "fixed": true,
      "value": "reco_prcs/5digit_RecoPrecisionCubicFitCoefficients_0.7_2.0_data_tau_10_by_16.json"
    },
    "up_down_e_reco_prcs": {
      "fixed": false,
      "prior": {
        "fiducial": 1.0,
        "kind": "gaussian",
        "sigma": 0.05
      },
      "range": [
        0.8,
        1.2
      ],
      "scale": 1,
      "value": 1.0
    },
    "up_down_cz_reco_prcs": {
      "fixed": false,
      "prior": {
        "fiducial": 1.0,
        "kind": "gaussian",
        "sigma": 0.05
      },
      "range": [
        0.8,
        1.2
      ],
      "scale": 1,
      "value": 1.0
    },
    "residual_up_down": {
      "fixed": true,
      "value": false
    },
    "up_down_reco_prcs": {
      "fixed": false,
      "prior": {
        "fiducial": 1.0,
        "kind": "gaussian",
        "sigma": 0.05
      },
      "range": [
        0.8,
        1.2
      ],
      "scale": 1,
      "value": 1.0
    },
    "simp_up_down": {
      "fixed": true,
      "value": true
    },
    "theta12": {
      "fixed": true,
      "prior": {
        "fiducial": 0.5846852994181004,
        "kind": "gaussian",
        "sigma": 0.013962634015954637
      },
      "range": [
        0.5462880558742251,
        0.6283185307179586
      ],
      "scale": 1.0,
      "value": 0.5846852994181004
    },
    "theta13": {
      "fixed": false,
      "prior": {
        "fiducial": 0.14835298641951802,
        "kind": "gaussian",
        "sigma": 0.003490658503988659
      },
      "range": [
        0.13700834628155487,
        0.158824961931484
      ],
      "scale": 1.0,
      "value": 0.14835298641951802
    },
    "theta23_ih": {
      "fixed": false,
      "prior": {
        "coeffs": [
          -66.28392563826,
          -63.50894287709759,
          -59.491739092066425,
          -54.419632995606804,
          -50.785058370243654,
          -47.305567524561425,
          -43.98072419919317,
          -40.803948055596265,
          -37.777479496542234,
          -34.89746237649097,
          -32.16156458096918,
          -29.568538926370724,
          -27.115648561948703,
          -24.800267318239484,
          -22.619785565595738,
          -20.571001914206576,
          -18.647176722592057,
          -16.849334436642234,
          -15.174358071159393,
          -13.618232646857114,
          -12.176702660641167,
          -10.847716942465134,
          -9.623375728645726,
          -8.504786674688477,
          -7.486939223382063,
          -6.562160200764321,
          -5.729826466836922,
          -4.9820974332651256,
          -4.319520607616652,
          -3.731645506873289,
          -3.2204102485021466,
          -2.7768408157961573,
          -2.3930818826759683,
          -2.0731235813351443,
          -1.804402375245182,
          -1.5858088898232046,
          -1.41364303243084,
          -1.2751983584165782,
          -1.1744221967456276,
          -1.1010636709913066,
          -1.0537284345540578,
          -1.027668354802417,
          -1.014201202830205,
          -1.0162280017713066,
          -1.0227317674031813,
          -1.0326550331434095,
          -1.044200839804073,
          -1.052475415315995,
          -1.0556220126304736,
          -1.0488101317321707,
          -1.0330073831429447,
          -1.0065768109331843,
          -0.9689152123310499,
          -0.9196887037474504,
          -0.8600143984944703,
          -0.7886073561929976,
          -0.7077692078977165,
          -0.6211031309222499,
          -0.5279320993961362,
          -0.4319016745260625,
          -0.33838090269926846,
          -0.245904532721853,
          -0.16491532586315663,
          -0.0903184294793657,
          -0.03591556653643759,
          -0.004911176976467176,
          0.004874953660324509,
          -0.019279021574531104,
          -0.08161403581508207,
          -0.18279052304251664,
          -0.3357191067577454,
          -0.5392875304077107,
          -0.8020044189253898,
          -1.1297909374310253,
          -1.5248494746495929,
          -1.9962751249263226,
          -2.543321970731312,
          -3.1763515233734085,
          -3.8994359339327667,
          -4.71579459514128,
          -5.627072390631331,
          -6.642371853205013,
          -7.764455030851772,
          -8.9973914840772,
          -10.342570427781421,
          -11.806979386056511,
          -13.393214987829616,
          -15.104832496031833,
          -16.945036748028098,
          -18.916869320583018,
          -21.023448310168938,
          -23.266087727808387,
          -25.6489108165367,
          -28.173412969773555,
          -30.84317740043864,
          -33.6602124298607,
          -36.626733896594565,
          -39.744663002941614,
          -44.12022714199323,
          -47.61477268589783,
          -50.04017563825999,
          -0.0007756382599881676,
          -0.0007756382599881676,
          -0.0007756382599881676,
          -0.0007756382599881676
        ],
        "deg": 3,
        "kind": "spline",
        "knots": [
          0.5235987755982989,
          0.5235987755982989,
          0.5235987755982989,
          0.5235987755982989,
          0.5350708071951543,
          0.5407527743903904,
          0.5464005641379722,
          0.5520154938738002,
          0.5575988266995366,
          0.5631517749295388,
          0.5686755033625053,
          0.5741711323040704,
          0.5796397403637042,
          0.5850823670467623,
          0.590500015160318,
          0.595893653049473,
          0.6012642166791283,
          0.6066126115746933,
          0.6119397146338674,
          0.6172463758204582,
          0.6225334197501333,
          0.6278016471770861,
          0.6330518363897495,
          0.638284744522957,
          0.6435011087932844,
          0.6487016476637117,
          0.6538870619432138,
          0.6590580358264089,
          0.6642152378779667,
          0.6693593219660918,
          0.6744909281490511,
          0.6796106835184006,
          0.684719203002283,
          0.6898170901319185,
          0.6949049377741745,
          0.699983328832896,
          0.7050528369214929,
          0.7101140270091053,
          0.7151674560425204,
          0.7202136735458755,
          0.7252532222000543,
          0.7302866384035749,
          0.7353144528166684,
          0.7403371908901507,
          0.7453553733806189,
          0.7503695168534232,
          0.7553801341748091,
          0.7603877349945632,
          0.7653928262204539,
          0.7703959124857098,
          0.775397496610753,
          0.7803980800603648,
          0.7853981633974484,
          0.7903982467345319,
          0.7953988301841435,
          0.8004004143091868,
          0.8054035005744429,
          0.8104085918003334,
          0.8154161926200876,
          0.8204268099414735,
          0.8254409534142778,
          0.830459135904746,
          0.8354818739782283,
          0.8405096883913217,
          0.8455431045948424,
          0.8505826532490209,
          0.8556288707523761,
          0.8606822997857912,
          0.8657434898734035,
          0.8708129979620005,
          0.8758913890207222,
          0.8809792366629781,
          0.8860771237926137,
          0.8911856432764962,
          0.8963053986458455,
          0.901437004828805,
          0.90658108891693,
          0.9117382909684877,
          0.9169092648516828,
          0.9220946791311849,
          0.9272952180016123,
          0.9325115822719395,
          0.9377444904051472,
          0.9429946796178105,
          0.9482629070447633,
          0.9535499509744385,
          0.9588566121610292,
          0.9641837152202035,
          0.9695321101157683,
          0.9749026737454237,
          0.9802963116345785,
          0.9857139597481341,
          0.9911565864311923,
          0.9966251944908262,
          1.002120823432391,
          1.0076445518653578,
          1.01319750009536,
          1.0187808329210963,
          1.0243957626569244,
          1.0300435524045062,
          1.0357255195997424,
          1.0471975511965976,
          1.0471975511965976,
          1.0471975511965976,
          1.0471975511965976
        ]
      },
      "range": [
        0.6736970912698113,
        0.9302604913129776
      ],
      "scale": 1.0,
      "value": 0.8639379797371932
    },
    "theta23_nh": {
      "fixed": false,
      "prior": {
        "coeffs": [
          -66.78414124371854,
          -63.95651372746182,
          -59.86119266468472,
          -54.69157827499655,
          -50.983748374725835,
          -47.430046677544965,
          -44.03328834599713,
          -40.790415952480636,
          -37.698071901956986,
          -34.75662266100045,
          -31.959988013385956,
          -29.304300039041852,
          -26.79246362029293,
          -24.420797499840248,
          -22.185945148953998,
          -20.0797703982781,
          -18.105005313752418,
          -16.26156221903923,
          -14.533957457128452,
          -12.930456008956172,
          -11.447003112890014,
          -10.069373080708697,
          -8.808877611285613,
          -7.649795832070845,
          -6.5936088435063835,
          -5.636073810111574,
          -4.7660576576638345,
          -3.9939602314425997,
          -3.298892718043392,
          -2.691822626247755,
          -2.1558578639629418,
          -1.6920884468159612,
          -1.2999502964299359,
          -0.9644653969641506,
          -0.689591587642786,
          -0.472264148499885,
          -0.2955926789165649,
          -0.16855190978987694,
          -0.08075166720090726,
          -0.024278460831795023,
          0.0014157566075181371,
          0.0004792591989113415,
          -0.019307780803405172,
          -0.05911428883073783,
          -0.10447084024670766,
          -0.16210618504956892,
          -0.22598371696610647,
          -0.28883120942909773,
          -0.35056375250240696,
          -0.4088850944144519,
          -0.46126852489729625,
          -0.5059460113978396,
          -0.5416006433740024,
          -0.5676200677901255,
          -0.5836901752905703,
          -0.5911885725108352,
          -0.5873833963561403,
          -0.5758802179172184,
          -0.562268620227748,
          -0.5377213055753363,
          -0.515801457821697,
          -0.4968394756754279,
          -0.47790880676827324,
          -0.46771485858815226,
          -0.4625479194143211,
          -0.4723874461766085,
          -0.48931963035415,
          -0.517821811412408,
          -0.5772515756728098,
          -0.6691066639062533,
          -0.8036752668402567,
          -0.9875527116489127,
          -1.222206489599978,
          -1.5172881830886626,
          -1.8758698809248617,
          -2.302529201607925,
          -2.8023025937350114,
          -3.3830459190323072,
          -4.047444287475481,
          -4.797528584660171,
          -5.641996530940567,
          -6.584433931056635,
          -7.627434209089879,
          -8.774322887572195,
          -10.031371500327316,
          -11.401313961753129,
          -12.887816993327128,
          -14.494614083532163,
          -16.224226415398974,
          -18.07888481956603,
          -20.063580470314403,
          -22.180880913869807,
          -24.433610692471643,
          -26.824355123334325,
          -29.355708255163524,
          -32.02986768374755,
          -34.84898812107088,
          -37.81613415955875,
          -41.98235940740019,
          -45.314594476855206,
          -47.63041624371854,
          0.48475875628146,
          0.48475875628146,
          0.48475875628146,
          0.48475875628146
        ],
        "deg": 3,
        "kind": "spline",
        "knots": [
          0.5235987755982989,
          0.5235987755982989,
          0.5235987755982989,
          0.5235987755982989,
          0.5350708071951543,
          0.5407527743903904,
          0.5464005641379722,
          0.5520154938738002,
          0.5575988266995366,
          0.5631517749295388,
          0.5686755033625053,
          0.5741711323040704,
          0.5796397403637042,
          0.5850823670467623,
          0.590500015160318,
          0.595893653049473,
          0.6012642166791283,
          0.6066126115746933,
          0.6119397146338674,
          0.6172463758204582,
          0.6225334197501333,
          0.6278016471770861,
          0.6330518363897495,
          0.638284744522957,
          0.6435011087932844,
          0.6487016476637117,
          0.6538870619432138,
          0.6590580358264089,
          0.6642152378779667,
          0.6693593219660918,
          0.6744909281490511,
          0.6796106835184006,
          0.684719203002283,
          0.6898170901319185,
          0.6949049377741745,
          0.699983328832896,
          0.7050528369214929,
          0.7101140270091053,
          0.7151674560425204,
          0.7202136735458755,
          0.7252532222000543,
          0.7302866384035749,
          0.7353144528166684,
          0.7403371908901507,
          0.7453553733806189,
          0.7503695168534232,
          0.7553801341748091,
          0.7603877349945632,
          0.7653928262204539,
          0.7703959124857098,
          0.775397496610753,
          0.7803980800603648,
          0.7853981633974484,
          0.7903982467345319,
          0.7953988301841435,
          0.8004004143091868,
          0.8054035005744429,
          0.8104085918003334,
          0.8154161926200876,
          0.8204268099414735,
          0.8254409534142778,
          0.830459135904746,
          0.8354818739782283,
          0.8405096883913217,
          0.8455431045948424,
          0.8505826532490209,
          0.8556288707523761,
          0.8606822997857912,
          0.8657434898734035,
          0.8708129979620005,
          0.8758913890207222,
          0.8809792366629781,
          0.8860771237926137,
          0.8911856432764962,
          0.8963053986458455,
          0.901437004828805,
          0.90658108891693,
          0.9117382909684877,
          0.9169092648516828,
          0.9220946791311849,
          0.9272952180016123,
          0.9325115822719395,
          0.9377444904051472,
          0.9429946796178105,
          0.9482629070447633,
          0.9535499509744385,
          0.9588566121610292,
          0.9641837152202035,
          0.9695321101157683,
          0.9749026737454237,
          0.9802963116345785,
          0.9857139597481341,
          0.9911565864311923,
          0.9966251944908262,
          1.002120823432391,
          1.0076445518653578,
          1.01319750009536,
          1.0187808329210963,
          1.0243957626569244,
          1.0300435524045062,
          1.0357255195997424,
          1.0471975511965976,
          1.0471975511965976,
          1.0471975511965976,
          1.0471975511965976
        ]
      },
      "range": [
        0.6667157742618339,
        0.9302604913129776
      ],
      "scale": 1.0,
      "value": 0.7382742735936014
    }
  }
}
