{
  "binning": {
    "czbins": [
      -1.0,
      -0.875,
      -0.75,
      -0.625,
      -0.5,
      -0.375,
      -0.25,
      -0.125,
      0.0,
      0.125,
      0.25,
      0.375,
      0.5,
      0.625,
      0.75,
      0.875,
      1.0
    ],
    "ebins": [
      3.0,
      7.93242268,
      10.48722159,
      13.86484573,
      18.33030278,
      24.23395158,
      32.03899118,
      42.35780337,
      56.0,
      80.0
    ],
    "oversample_cz": 10,
    "oversample_e": 10
  },
  "params": {
    "PID_offset": {
      "fixed": true,
      "prior": {
        "fiducial": 0.0,
        "kind": "gaussian",
        "sigma": 0.02
      },
      "range": [
        -0.1,
        0.1
      ],
      "scale": 1.0,
      "value": 0.0
    },
    "PID_scale": {
      "fixed": true,
      "prior": {
        "fiducial": 1.0,
        "kind": "gaussian",
        "sigma": 0.02
      },
      "range": [
        0.9,
        1.1
      ],
      "scale": 1.0,
      "value": 1.0
    },
    "YeI": {
      "fixed": true,
      "prior": {
        "kind": "uniform"
      },
      "range": [
        0.46,
        0.47
      ],
      "scale": 1.0,
      "value": 0.4656
    },
    "YeM": {
      "fixed": true,
      "prior": {
        "kind": "uniform"
      },
      "range": [
        0.496,
        0.495
      ],
      "scale": 1.0,
      "value": 0.4957
    },
    "YeO": {
      "fixed": true,
      "prior": {
        "kind": "uniform"
      },
      "range": [
        0.46,
        0.47
      ],
      "scale": 1.0,
      "value": 0.4656
    },
    "aeff_coszen_par": {
      "fixed": true,
      "value": "aeff/DC12/"
    },
    "aeff_egy_par": {
      "fixed": true,
      "value": {
        "NC": "aeff/DC12/nocuts/a_eff_nuall_nc.dat",
        "NC_bar": "aeff/DC12/nocuts/a_eff_nuallbar_nc.dat",
        "nue": "aeff/DC12/nocuts/a_eff_nue.dat",
        "nue_bar": "aeff/DC12/nocuts/a_eff_nuebar.dat",
        "numu": "aeff/DC12/nocuts/a_eff_numu.dat",
        "numu_bar": "aeff/DC12/nocuts/a_eff_numubar.dat",
        "nutau": "aeff/DC12/nocuts/a_eff_nutau.dat",
        "nutau_bar": "aeff/DC12/nocuts/a_eff_nutaubar.dat"
      }
    },
    "aeff_mode": {
      "fixed": true,
      "value": "MC"
    },
    "aeff_scale": {
      "fixed": true,
      "prior": {
        "kind": "uniform"
      },
      "range": [
        0.7,
        1.3
      ],
      "scale": 1.0,
      "value": 1.0
    },
    "aeff_weight_file": {
      "fixed": true,
      "value": "aeff/DC12/1X60_aeff_mc.hdf5"
    },
    "atm_delta_index": {
      "fixed": true,
      "prior": {
        "fiducial": 0.0,
        "kind": "gaussian",
        "sigma": 0.05
      },
      "range": [
        -0.2,
        0.2
      ],
      "scale": 1.0,
      "value": 0.0
    },
    "atmos_mu_scale": {
      "fixed": true,
      "prior": {
        "kind": "uniform"
      },
      "range": [
        0.0,
        1.0
      ],
      "scale": 1.0,
      "value": 0.0
    },
    "channel": {
      "fixed": true,
      "value": "all"
    },
    "cz_reco_scale": {
      "fixed": true,
      "prior": {
        "fiducial": 1.0,
        "kind": "gaussian",
        "sigma": 0.02
      },
      "range": [
        0.9,
        1.1
      ],
      "scale": 1.0,
      "value": 1.0
    },
    "deltacp": {
      "fixed": true,
      "prior": {
        "kind": "uniform"
      },
      "range": [
        0.0,
        360.0
      ],
      "scale": 1.0,
      "value": 0.0
    },
    "deltam21": {
      "fixed": true,
      "prior": {
        "fiducial": 7.5e-05,
        "kind": "gaussian",
        "sigma": 2e-06
      },
      "range": [
        7e-05,
        8e-05
      ],
      "scale": 10000.0,
      "value": 7.5e-05
    },
    "deltam31_ih": {
      "fixed": true,
      "prior": {
        "fiducial": -0.00237,
        "kind": "gaussian",
        "sigma": 5e-05
      },
      "range": [
        -0.0025,
        -0.0022
      ],
      "scale": 100.0,
      "value": -0.00237
    },
    "deltam31_nh": {
      "fixed": true,
      "prior": {
        "fiducial": 0.00246,
        "kind": "gaussian",
        "sigma": 5e-05
      },
      "range": [
        0.0023,
        0.0026
      ],
      "scale": 100.0,
      "value": 0.00246
    },
    "detector_depth": {
      "fixed": true,
      "value": 2.0
    },
    "dom_eff": {
      "fixed": true,
      "prior": {
        "fiducial": 1.0,
        "kind": "gaussian",
        "sigma": 0.1
      },
      "range": [
        0.85,
        1.15
      ],
      "scale": 1.0,
      "value": 1.0
    },
    "e_reco_scale": {
      "fixed": true,
      "prior": {
        "fiducial": 1.0,
        "kind": "gaussian",
        "sigma": 0.02
      },
      "range": [
        0.9,
        1.1
      ],
      "scale": 1.0,
      "value": 1.0
    },
    "earth_model": {
      "fixed": true,
      "value": "oscillations/PREM_12layer.dat"
    },
    "energy_scale": {
      "fixed": true,
      "prior": {
        "fiducial": 1.0,
        "kind": "gaussian",
        "sigma": 0.1
      },
      "range": [
        0.7,
        1.3
      ],
      "scale": 1.0,
      "value": 1.0
    },
    "flux_file": {
      "fixed": true,
      "value": "flux/frj-solmin-mountain-aa.d"
    },
    "hole_ice": {
      "fixed": true,
      "prior": {
        "fiducial": 0.2,
        "kind": "gaussian",
        "sigma": 0.1
      },
      "range": [
        0.0,
        0.5
      ],
      "scale": 1.0,
      "value": 0.2
    },
    "icc_bg_file": {
      "fixed": true,
      "value": "background/IC86_3yr_ICC.hdf5"
    },
    "livetime": {
      "fixed": true,
      "value": 1.0
    },
    "nu_nubar_ratio": {
      "fixed": true,
      "prior": {
        "fiducial": 1.0,
        "kind": "gaussian",
        "sigma": 0.1
      },
      "range": [
        0.7,
        1.3
      ],
      "scale": 1.0,
      "value": 1.0
    },
    "nue_numu_ratio": {
      "fixed": true,
      "prior": {
        "fiducial": 1.0,
        "kind": "gaussian",
        "sigma": 0.03
      },
      "range": [
        0.7,
        1.3
      ],
      "scale": 1.0,
      "value": 1.0
    },
    "nutau_norm": {
      "fixed": true,
      "prior": {
        "kind": "uniform"
      },
      "range": [
        -0.7,
        3.0
      ],
      "scale": 1.0,
      "value": 1.0
    },
    "osc_code": {
      "fixed": true,
      "value": "gpu"
    },
    "pid_kernelfile": {
      "fixed": true,
      "value": null
    },
    "pid_mode": {
      "fixed": true,
      "value": "param"
    },
    "pid_paramfile": {
      "fixed": true,
      "value": "pid/DC12/1X60_pid.json"
    },
    "prop_height": {
      "fixed": true,
      "value": 20.0
    },
    "ratio_up_down": {
      "fixed": true,
      "value": false
    },
    "reco_kernel_file": {
      "fixed": true,
      "value": null
    },
    "reco_mc_wt_file": {
      "fixed": true,
      "value": "events/DC12/1X60_weighted_aeff_joined_nu_nubar.hdf5"
    },
    "reco_mode": {
      "fixed": true,
      "value": "MC"
    },
    "reco_param_file": {
      "fixed": true,
      "value": "reco/V36.json"
    },
    "reco_vbwkde_evts_file": {
      "fixed": true,
      "value": "events/DC12/1X60_weighted_aeff_joined_nu_nubar.hdf5"
    },
    "residual_up_down": {
      "fixed": true,
      "value": false
    },
    "simp_up_down": {
      "fixed": true,
      "value": true
    },
    "theta12": {
      "fixed": true,
      "prior": {
        "fiducial": 0.5846852994181004,
        "kind": "gaussian",
        "sigma": 0.013962634015954637
      },
      "range": [
        0.5462880558742251,
        0.6283185307179586
      ],
      "scale": 1.0,
      "value": 0.5846852994181004
    },
    "theta13": {
      "fixed": true,
      "prior": {
        "fiducial": 0.14835298641951802,
        "kind": "gaussian",
        "sigma": 0.003490658503988659
      },
      "range": [
        0.13700834628155487,
        0.158824961931484
      ],
      "scale": 1.0,
      "value": 0.14835298641951802
    },
    "theta23_ih": {
      "fixed": true,
      "prior": {
        "coeffs": [
          -132.5663,
          -127.0163344776752,
          -118.98192690761287,
          -108.83771471469363,
          -101.56856546396733,
          -94.60958377260287,
          -87.95989712186636,
          -81.60634483467256,
          -75.5534077165645,
          -69.79337347646197,
          -64.32157788541838,
          -59.13552657622147,
          -54.22974584737743,
          -49.59898335995899,
          -45.2380198546715,
          -41.140452551893176,
          -37.29280216866414,
          -33.69711759676449,
          -30.34716486579881,
          -27.234914017194253,
          -24.35185404476236,
          -21.69388260841029,
          -19.245200180771477,
          -17.008022072856978,
          -14.97232717024415,
          -13.122769125008666,
          -11.458101657153868,
          -9.962643590010275,
          -8.637489938713328,
          -7.461739737226601,
          -6.4392692204843165,
          -5.552130355072338,
          -4.78461248883196,
          -4.144695886150312,
          -3.607253473970388,
          -3.170066503126433,
          -2.8257347883417037,
          -2.54884544031318,
          -2.347293116971279,
          -2.200576065462637,
          -2.1059055925881394,
          -2.0537854330848577,
          -2.0268511291404336,
          -2.030904727022637,
          -2.0439122582863862,
          -2.0637587897668426,
          -2.0868504030881696,
          -2.1033995541120136,
          -2.109692748740971,
          -2.096068986944365,
          -2.064463489765913,
          -2.0116023453463923,
          -1.9362791481421235,
          -1.8378261309749244,
          -1.7184775204689642,
          -1.5756634358660189,
          -1.4139871392754566,
          -1.2406549853245235,
          -1.054312922272296,
          -0.8622520725321486,
          -0.6752105288785606,
          -0.4902577889237297,
          -0.32827937520633693,
          -0.17908558243875508,
          -0.07027985655289885,
          -0.008271077432958017,
          0.011301183840625353,
          -0.03700676662908587,
          -0.16167679511018782,
          -0.36402976956505695,
          -0.6698869369955145,
          -1.077023784295445,
          -1.6024575613308032,
          -2.2580305983420743,
          -3.0481476727792094,
          -3.990998973332669,
          -5.085092664942647,
          -6.35115177022684,
          -7.7973205913455566,
          -9.430037913762584,
          -11.252593504742686,
          -13.28319242989005,
          -15.527358785183567,
          -17.993231691634424,
          -20.683589579042867,
          -23.612407495593047,
          -26.784878699139256,
          -30.20811371554369,
          -33.88852221953622,
          -37.83218736464606,
          -42.0453453438179,
          -46.5306241790968,
          -51.29627035655342,
          -56.34527466302713,
          -61.68480352435731,
          -67.31887358320142,
          -73.25191651666916,
          -79.48777472936325,
          -88.23890300746649,
          -95.22799409527569,
          -100.0788,
          0.0,
          0.0,
          0.0,
          0.0
        ],
        "deg": 3,
        "knots": [
          0.5235987755982989,
          0.5235987755982989,
          0.5235987755982989,
          0.5235987755982989,
          0.5350708071951543,
          0.5407527743903904,
          0.5464005641379722,
          0.5520154938738002,
          0.5575988266995366,
          0.5631517749295388,
          0.5686755033625053,
          0.5741711323040704,
          0.5796397403637042,
          0.5850823670467623,
          0.590500015160318,
          0.595893653049473,
          0.6012642166791283,
          0.6066126115746933,
          0.6119397146338674,
          0.6172463758204582,
          0.6225334197501333,
          0.6278016471770861,
          0.6330518363897495,
          0.638284744522957,
          0.6435011087932844,
          0.6487016476637117,
          0.6538870619432138,
          0.6590580358264089,
          0.6642152378779667,
          0.6693593219660918,
          0.6744909281490511,
          0.6796106835184006,
          0.684719203002283,
          0.6898170901319185,
          0.6949049377741745,
          0.699983328832896,
          0.7050528369214929,
          0.7101140270091053,
          0.7151674560425204,
          0.7202136735458755,
          0.7252532222000543,
          0.7302866384035749,
          0.7353144528166684,
          0.7403371908901507,
          0.7453553733806189,
          0.7503695168534232,
          0.7553801341748091,
          0.7603877349945632,
          0.7653928262204539,
          0.7703959124857098,
          0.775397496610753,
          0.7803980800603648,
          0.7853981633974484,
          0.7903982467345319,
          0.7953988301841435,
          0.8004004143091868,
          0.8054035005744429,
          0.8104085918003334,
          0.8154161926200876,
          0.8204268099414735,
          0.8254409534142778,
          0.830459135904746,
          0.8354818739782283,
          0.8405096883913217,
          0.8455431045948424,
          0.8505826532490209,
          0.8556288707523761,
          0.8606822997857912,
          0.8657434898734035,
          0.8708129979620005,
          0.8758913890207222,
          0.8809792366629781,
          0.8860771237926137,
          0.8911856432764962,
          0.8963053986458455,
          0.901437004828805,
          0.90658108891693,
          0.9117382909684877,
          0.9169092648516828,
          0.9220946791311849,
          0.9272952180016123,
          0.9325115822719395,
          0.9377444904051472,
          0.9429946796178105,
          0.9482629070447633,
          0.9535499509744385,
          0.9588566121610292,
          0.9641837152202035,
          0.9695321101157683,
          0.9749026737454237,
          0.9802963116345785,
          0.9857139597481341,
          0.9911565864311923,
          0.9966251944908262,
          1.002120823432391,
          1.0076445518653578,
          1.01319750009536,
          1.0187808329210963,
          1.0243957626569244,
          1.0300435524045062,
          1.0357255195997424,
          1.0471975511965976,
          1.0471975511965976,
          1.0471975511965976,
          1.0471975511965976
        ],
        "kind": "spline"
      },
      "range": [
        0.6736970912698113,
        0.9302604913129776
      ],
      "scale": 1.0,
      "value": 0.8639379797371931
    },
    "theta23_nh": {
      "fixed": false,
      "prior": {
        "coeffs": [
          -134.5378,
          -128.88254496748655,
          -120.69190284193236,
          -110.35267406255602,
          -102.93701426201459,
          -95.82961086765285,
          -89.03609420455717,
          -82.55034941752419,
          -76.36566131647689,
          -70.48276283456381,
          -64.88949353933484,
          -59.57811759064663,
          -54.554444753148786,
          -49.81111251224342,
          -45.34140781047092,
          -41.129058309119124,
          -37.17952814006776,
          -33.492641950641385,
          -30.037432426819823,
          -26.830429530475264,
          -23.86352373834295,
          -21.108263673980314,
          -18.587272735134146,
          -16.26910917670461,
          -14.156735199575687,
          -12.241665132786068,
          -10.501632827890589,
          -8.95743797544812,
          -7.567302948649703,
          -6.35316276505843,
          -5.281233240488803,
          -4.353694406194842,
          -3.5694181054227916,
          -2.898448306491221,
          -2.348700687848492,
          -1.91404580956269,
          -1.5607028703960497,
          -1.3066213321426738,
          -1.1310208469647345,
          -1.01807443422651,
          -0.9666859993478837,
          -0.9685589941650973,
          -1.0081330741697303,
          -1.0877460902243956,
          -1.1784591930563353,
          -1.2937298826620578,
          -1.421484946495133,
          -1.5471799314211154,
          -1.6706450175677339,
          -1.7872877013918238,
          -1.8920545623575125,
          -1.981409535358599,
          -2.0527187993109246,
          -2.104757648143171,
          -2.1368978631440605,
          -2.1518946575845903,
          -2.1442843052752005,
          -2.1212779483973567,
          -2.094054753018416,
          -2.0449601237135924,
          -2.0011204282063138,
          -1.9631964639137758,
          -1.9253351260994664,
          -1.9049472297392245,
          -1.8946133513915622,
          -1.914292404916137,
          -1.94815677327122,
          -2.005161135387736,
          -2.1240206639085395,
          -2.3077308403754264,
          -2.5768680462434332,
          -2.944622935860745,
          -3.413930491762876,
          -4.004093878740245,
          -4.721257274412643,
          -5.5745759157787695,
          -6.574122700032943,
          -7.735609350627534,
          -9.064406087513882,
          -10.564574681883261,
          -12.253510574444054,
          -14.13838537467619,
          -16.224385930742677,
          -18.51816328770731,
          -21.03226051321755,
          -23.772145436069177,
          -26.745151499217176,
          -29.958745679627246,
          -33.41797034336087,
          -37.127287151694986,
          -41.09667845319173,
          -45.33127934030254,
          -49.83673889750621,
          -54.61822775923157,
          -59.68093402288997,
          -65.02925288005801,
          -70.66749375470468,
          -76.60178583168042,
          -84.9342363273633,
          -91.59870646627333,
          -96.23035,
          0.0,
          0.0,
          0.0,
          0.0
        ],
        "deg": 3,
        "knots": [
          0.5235987755982989,
          0.5235987755982989,
          0.5235987755982989,
          0.5235987755982989,
          0.5350708071951543,
          0.5407527743903904,
          0.5464005641379722,
          0.5520154938738002,
          0.5575988266995366,
          0.5631517749295388,
          0.5686755033625053,
          0.5741711323040704,
          0.5796397403637042,
          0.5850823670467623,
          0.590500015160318,
          0.595893653049473,
          0.6012642166791283,
          0.6066126115746933,
          0.6119397146338674,
          0.6172463758204582,
          0.6225334197501333,
          0.6278016471770861,
          0.6330518363897495,
          0.638284744522957,
          0.6435011087932844,
          0.6487016476637117,
          0.6538870619432138,
          0.6590580358264089,
          0.6642152378779667,
          0.6693593219660918,
          0.6744909281490511,
          0.6796106835184006,
          0.684719203002283,
          0.6898170901319185,
          0.6949049377741745,
          0.699983328832896,
          0.7050528369214929,
          0.7101140270091053,
          0.7151674560425204,
          0.7202136735458755,
          0.7252532222000543,
          0.7302866384035749,
          0.7353144528166684,
          0.7403371908901507,
          0.7453553733806189,
          0.7503695168534232,
          0.7553801341748091,
          0.7603877349945632,
          0.7653928262204539,
          0.7703959124857098,
          0.775397496610753,
          0.7803980800603648,
          0.7853981633974484,
          0.7903982467345319,
          0.7953988301841435,
          0.8004004143091868,
          0.8054035005744429,
          0.8104085918003334,
          0.8154161926200876,
          0.8204268099414735,
          0.8254409534142778,
          0.830459135904746,
          0.8354818739782283,
          0.8405096883913217,
          0.8455431045948424,
          0.8505826532490209,
          0.8556288707523761,
          0.8606822997857912,
          0.8657434898734035,
          0.8708129979620005,
          0.8758913890207222,
          0.8809792366629781,
          0.8860771237926137,
          0.8911856432764962,
          0.8963053986458455,
          0.901437004828805,
          0.90658108891693,
          0.9117382909684877,
          0.9169092648516828,
          0.9220946791311849,
          0.9272952180016123,
          0.9325115822719395,
          0.9377444904051472,
          0.9429946796178105,
          0.9482629070447633,
          0.9535499509744385,
          0.9588566121610292,
          0.9641837152202035,
          0.9695321101157683,
          0.9749026737454237,
          0.9802963116345785,
          0.9857139597481341,
          0.9911565864311923,
          0.9966251944908262,
          1.002120823432391,
          1.0076445518653578,
          1.01319750009536,
          1.0187808329210963,
          1.0243957626569244,
          1.0300435524045062,
          1.0357255195997424,
          1.0471975511965976,
          1.0471975511965976,
          1.0471975511965976,
          1.0471975511965976
        ],
        "kind": "spline"
      },
      "range": [
        0.6667157742618339,
        0.9302604913129776
      ],
      "scale": 1.0,
      "value": 0.7382742735936013
    }
  }
}